Course_ID,Course_Feature_0,Course_Feature_1,Course_Feature_2,Course_Feature_3,Course_Feature_4,Course_Feature_5,Course_Feature_6,Course_Feature_7,Course_Feature_8,Course_Feature_9,Course_Feature_10,Course_Feature_11,Course_Feature_12,Course_Feature_13,Course_Feature_14,Course_Feature_15
CC0101EN,-0.039492946,-0.046960603,-0.03127965,-0.015159495,-0.2570755,0.007762156,-0.12002294,0.118434094,0.09451735,0.27944103,-0.110487685,0.05488553,-0.02987598,-0.071809225,-0.010483123,0.07957034
CL0101EN,-0.07254912,0.05614042,0.29424673,-0.090111904,-0.08128908,0.24346164,0.26726317,-0.025281888,0.033823274,0.19480594,-0.017052209,0.044628564,-0.25167733,-0.14036629,0.15838835,0.120747626
ML0120ENv3,-0.017471218,0.044614892,-0.099043824,-0.011788456,0.039947078,0.17644757,-0.034119684,0.0712145,-0.06343401,-0.10714531,-0.06594472,-0.045263022,0.020473165,-0.0979502,0.076772615,0.05733748
BD0211EN,0.23383015,-0.08093449,-0.058808435,-0.08440734,0.11882368,-0.18245493,0.19320227,-0.0430355,0.25030646,-0.011128797,0.025923047,-0.2895979,0.10795934,0.28743547,0.06517655,-0.055921376
DS0101EN,0.22167353,-0.01247448,0.27896678,0.040157463,0.08419265,-0.012153311,0.123990096,0.17368801,0.14299452,-0.11396672,0.07982608,0.05915461,-0.09008707,0.12560599,-0.01460565,-0.088862285
ST0101EN,0.04851061,-0.12154068,-0.08909459,-0.09245816,-0.018076278,-0.17616314,0.14717814,0.07397259,0.08041342,-0.08805208,-0.0032302279,-0.080789365,-0.013241016,-0.06762159,-0.24795142,-0.14130725
DS0301EN,-0.046620697,-0.05853766,-0.06867315,-0.10580993,-0.01769678,0.09783178,-0.20389004,-0.029495802,0.1496269,0.0140718045,-0.23328003,-0.090662874,0.2624052,-0.011794835,-0.20593598,0.17796613
DS0105EN,0.00048158053,-0.061177626,0.08338517,0.1319376,0.005409754,0.0006920866,-0.19574066,0.011725333,-0.1463362,-0.16234207,0.14340131,0.013462445,0.19749998,0.01827762,0.052373353,-0.24436171
BD0141EN,0.16601683,-0.10252536,0.21557476,0.103455044,-0.08855211,-0.22941615,-0.045974504,0.21931571,0.106041126,0.10105253,0.0597137,-0.22309513,0.03391179,0.26319045,-0.030695152,-0.02308884
CO0201EN,-0.06391899,0.22485144,-0.06848915,0.049348436,0.044931572,-0.24555515,-0.06789974,-0.09217421,-0.07936814,0.036794934,-0.028417401,0.16119632,0.19560394,0.2527083,0.22572741,-0.224667
CB0103EN,-0.030392485,-0.19710772,0.06119662,-0.015457972,-0.12853946,-0.20887794,0.2904118,-0.02541759,-0.0081831245,-0.09336457,0.033851672,-0.09015997,0.23202072,0.062352568,-0.05775425,-0.10949459
DV0101EN,-0.059264693,-0.027889645,0.010170852,0.09407002,0.15567654,0.052799825,0.17209564,-0.04844943,-0.13121794,-0.164295,-0.039602656,-0.20231897,0.24055843,-0.054404475,-0.088500716,-0.026199045
DS0103EN,0.09214469,0.079538554,-0.034967016,-0.17335498,-0.02005906,0.13250646,-0.024297308,-0.19357365,-0.07481195,-0.13362564,-0.10048467,0.18666561,0.07680841,0.26098967,0.0055270777,-0.12646055
BD0123EN,-0.122183725,0.034855265,-0.27434942,-0.11839416,-0.16975054,-0.08241065,0.11542853,-0.07357769,-0.13487521,-0.023325717,0.02735289,-0.0792066,0.06568177,0.10838465,-0.090884306,0.07987006
BC0101EN,0.15012905,-0.1946309,0.061867982,0.004062504,0.00027725296,0.042493943,-0.11538244,-0.17031337,0.007915632,-0.2796608,0.03217558,-0.19941193,-0.009625719,0.08307721,0.0030594913,0.03984994
TA0105EN,0.07045461,0.254946,-0.10198471,-0.14838628,-0.06333068,0.0033863191,-0.0076286257,-0.05643165,-0.034735113,-0.11826326,0.04410758,-0.09621651,0.10653787,0.20454839,-0.055712026,0.07688002
ML0151EN,-0.014538164,-0.12848738,-0.01589387,0.01676865,-0.054088924,-0.008952723,-0.11357259,0.09631496,0.11577753,-0.057193004,-0.10040077,0.18070245,0.023530822,0.00494879,0.21017385,0.24414635
BD0101EN,0.19239503,-0.054658175,-0.11665242,-0.036428735,-0.017659083,0.012634274,0.0035083746,0.027897151,0.1663373,-0.20767397,-0.080266654,0.04459655,-0.2221277,-0.18931527,-0.006297352,-0.04207856
BD0111EN,-0.0039082067,-0.10323009,-0.1128758,0.14260884,-0.045424793,-0.02484378,-0.030525414,0.17865638,-0.12248671,0.020311443,-0.13702957,0.051732812,-0.005905984,0.20013334,0.011936092,0.019134609
BC0201EN,-0.13983221,0.22926044,0.002108743,0.0030131808,0.038459007,-0.08047266,-0.16291443,0.22597499,0.11815657,0.18909957,-0.041353945,-0.10921131,-0.043126646,-0.13168038,0.0026002815,-0.021600787
ML0122ENv1,0.002637469,0.02272083,0.20775452,0.12645422,-0.03209398,-0.010979333,-0.044415515,-0.13003078,0.15303795,-0.04102595,0.0026677134,-0.0042738495,-0.2079241,-0.06623046,0.004739218,-0.07490259
BD0131EN,-0.111546464,-0.024775025,-0.076536305,-0.20546143,0.12812482,-0.017209599,0.12040816,-0.009266337,0.074065454,0.11251002,0.017100763,-0.049838115,-0.10777693,0.0043496867,0.070290156,0.278266
BD0121EN,0.09523247,0.050920054,-0.0069222776,-0.08613797,0.02716113,-0.12153637,-0.19519944,0.06515911,-0.007799607,-0.060759928,-0.039894678,0.1671891,0.0613709,-0.1927396,0.12484817,0.19884884
PY0101EN,0.091510236,-0.10674209,-0.061780114,-0.01311871,0.02425577,0.26768342,-0.09150666,0.04848755,0.007681172,0.098564886,0.0058479696,0.04953154,0.0031989312,-0.113723874,0.27047688,0.016921572
BD0145EN,-0.0009372904,-0.07194506,0.002071204,-0.13421012,-0.05022543,-0.058483854,0.27973387,0.02529282,-0.022065595,0.07477272,-0.004979418,0.16272962,0.12967734,0.12312391,-0.044744335,0.09555681
ML0101EN,0.051111955,-0.042355686,0.05594828,-0.11068541,-0.0033700222,-0.14292777,-0.076744996,0.09872496,0.04114287,0.022089912,-0.06736269,-0.21753447,-0.014800632,0.10285353,-0.21765858,0.19276692
CO0301EN,-0.10812166,0.06443532,0.11435566,0.10621297,-0.007420175,-0.04407649,0.11994414,0.027140142,0.16496278,0.03717501,0.24237701,-0.017640801,-0.06486059,-0.106138915,-0.11813333,-0.28378677
ML0101ENv3,0.119441055,0.079402685,-0.029617924,-0.0061252583,0.09150288,0.009932767,-0.15189376,0.116782315,0.003964104,-0.00072096055,-0.0022946424,-0.09127843,-0.0065430882,0.072361544,-0.22933756,0.040123064
DB0151EN,-0.054542508,-0.15701723,0.060745396,-0.005517788,0.21534339,-0.0017588238,0.16761053,-0.034998424,0.023109986,-0.20709172,-0.05532108,0.0827112,0.023535213,-0.16240801,0.18164495,0.05276478
CO0101EN,-0.25523028,-0.0013268392,-0.09711943,0.025482757,-0.032904115,0.27733922,0.0064413305,-0.0038622664,0.053813104,0.191716,0.025482664,0.05667051,0.044977993,0.13949181,-0.12740198,0.03125956
RP0101EN,0.101009265,-0.002645673,-0.26547256,0.12337281,-0.027342027,-0.15121554,0.054774314,0.07051059,-0.090709604,0.16663288,0.13780524,0.13310158,-0.05763159,0.09441333,-0.24523416,0.0034215627
SC0101EN,-0.09175094,-0.10919958,-0.23943709,-0.11549488,-0.0613543,-0.008245624,-0.20849963,0.0759554,-0.007862325,-0.07418199,0.039647073,-0.086666405,0.04527646,-0.05970488,-0.24746637,-0.19469061
PA0101EN,0.00062192546,-0.04578064,-0.17490277,0.19449052,-0.039995883,-0.12738444,0.054896027,0.10627411,0.028097037,-0.042063955,-0.12620188,-0.15573563,-0.0355484,-0.05106236,0.010311539,0.053196087
LB0101ENv1,-0.26831746,0.18024242,-0.1900489,0.077286735,0.10021153,-0.016825093,0.25904918,0.04831111,-0.0006149798,-0.076457866,-0.03660646,-0.10221466,-0.14711225,0.08854616,0.1797556,-0.021922888
ML0103EN,0.1536717,0.17091493,-0.04053088,-0.028471492,-0.28230825,-0.15851289,0.015814032,0.11936856,0.043631375,0.088351555,0.11369745,-0.11252353,-0.12723479,-0.0233478,0.07616568,-0.13159168
CC0150EN,-0.25865337,0.15450507,0.14476392,-0.06769651,0.04551732,-0.08019228,-0.08619561,0.112036094,-0.067491084,0.0011749225,0.0842664,-0.06291287,0.1459682,-0.16851147,-0.07911996,-0.18266559
DS0110EN,0.042970974,0.1735148,-0.19772692,0.08858827,-0.19109538,-0.24470006,-0.04215356,0.12809007,0.2626913,-0.03430485,-0.011822618,0.09579524,0.13013925,-0.028742872,-0.09992023,0.10745268
DA0101EN,-0.17693737,-0.022206912,-0.25378275,-0.21698365,0.14733508,0.14531253,-0.076562345,0.0020493753,0.07524079,0.058211613,0.11299194,0.0051597855,0.0062877606,-0.05604865,0.039509974,-0.12678903
ML0122EN,-0.027400276,0.19354574,-0.14871974,-0.1492743,0.11531567,0.014106416,-0.0776115,0.022507172,-0.011624098,-0.1665455,-0.00813044,0.024071246,-0.22183079,-0.2328669,0.20750256,0.026430579
ML0115EN,-0.087407954,-0.0103334375,-0.21205088,0.073965535,0.1808379,-0.0056278147,0.03484576,-0.1411514,-0.052589614,-0.1703576,-0.20481372,-0.1362314,-0.29066968,0.0003883909,0.03304591,-0.10606348
ML0111EN,-0.06083921,-0.2219686,-0.16417183,-0.21902193,-0.10970261,-0.104826614,0.103791766,0.045036763,-0.16766958,0.094276756,-0.021915603,-0.069116876,0.04417925,0.034410395,-0.023455322,0.028820725
ML0109EN,0.2163473,0.05181066,-0.0033895012,0.016504701,0.02478569,0.08432505,0.2558705,-0.03648445,0.041644976,0.0582078,-0.022549769,0.17424789,0.026298625,0.2460221,0.12549369,-0.21594669
BD0223EN,0.11105462,0.0029819405,0.10280949,0.16811153,0.16697031,-0.051351037,0.15933862,0.21992578,0.2766934,-0.17277344,-0.07102654,-0.07306796,-0.051296268,-0.21200584,0.019948445,0.0021477384
BC0202EN,0.03967721,-0.09107713,0.060561456,0.07962656,0.0995841,-0.08546012,-0.16784608,-0.16599149,-0.03882098,-0.040601373,0.15640089,0.20436464,-0.055272132,-0.1285626,-0.09425854,-0.010922087
CC0103EN,0.015693184,0.025238167,0.051216435,0.09677262,0.1532796,0.11554453,-0.121451505,-0.057973146,0.19268237,0.19629844,-0.13821502,0.06510258,-0.041470457,-0.043756716,-0.073129974,-0.0462958
COM001EN,0.090727344,0.16046523,0.20120296,0.118906386,0.14521676,-0.14560759,0.24934441,0.048001535,0.13223167,-0.022884367,0.16216198,-0.02500855,-0.009553028,0.1406503,-0.19724531,0.070406064
DB0101EN,-0.014985181,-0.014796747,0.060784683,0.08244118,-0.24634978,-0.09557974,-0.1209032,-0.10231863,-0.06320762,0.017406646,0.2703994,-0.17493284,0.19395883,-0.2880165,-0.07903024,-0.12189634
CNSC02EN,-0.058410473,-0.055417836,0.23242244,-0.15206094,-0.020371662,-0.026216153,-0.026455473,-0.024105746,-0.04015653,-0.067182705,-0.17645232,0.2204455,-0.24460807,-0.026474256,-0.04304974,0.07807425
DV0151EN,-0.19115578,-0.028203426,0.023949865,0.10259308,-0.1291311,-0.07615568,0.15062277,0.030895485,0.060502566,0.11755965,-0.09529602,-0.02860152,-0.17604333,-0.012104536,0.07397686,0.123659216
RP0105EN,-0.02541326,-0.0002976096,0.16069606,0.08336704,-0.0083550215,0.10214149,0.15068081,0.2852582,-0.055678796,-0.14136147,-0.1036834,-0.042166743,0.07761151,0.056189917,0.0128662605,-0.09831104
LB0109ENv1,-0.038440395,0.035816908,-0.053304736,0.17791307,-0.07792568,-0.009278933,-0.02611059,0.06922002,0.10276205,-0.061844643,0.26476565,0.22873919,-0.14123651,-0.0959562,0.035001155,-0.20107944
SC0105EN,0.15469594,-0.0017492801,-0.1432341,-0.22923036,-0.017849987,-0.045195494,0.061906185,-0.029287128,-0.1441178,0.017103719,0.09969415,-0.10837577,0.030289644,0.11743218,-0.12319848,-0.058795348
RP0103,-0.041030027,-0.005640812,-0.061233636,-0.03906523,-0.07990689,0.030899161,0.1337868,-0.19609877,0.12944058,-0.17152987,-0.09289189,-0.16275343,-0.14468352,-0.08696844,0.024308324,-0.16144072
WA0101EN,0.1500836,-0.08514657,-0.25661936,-0.15463708,0.13495523,0.055154905,0.11371932,-0.10920382,0.02092087,-0.19704065,0.10484827,-0.14124508,-0.063829266,-0.13491035,0.1421691,-0.22856104
RAVSCTEST1,-0.14421058,0.08682723,-0.0899992,0.0319191,0.18644075,-0.035431378,0.0801534,0.047555108,-0.08752717,0.16108201,-0.050261807,-0.061126456,-0.2009092,-0.05065623,0.0009898514,0.033594206
RP0151EN,0.0091357175,-0.23133472,0.1254382,-0.004743635,-0.040063348,0.10379758,0.04913743,0.09000622,-0.17859437,0.0074770423,0.20719802,-0.10653231,0.029234165,0.008554061,-0.047918893,0.02766704
CO0401EN,0.06374924,-0.029477118,0.097921655,0.06306438,-0.08620617,-0.0034567101,-0.19833605,0.15845537,0.03256445,0.12512432,-0.019448254,0.2651275,0.09832242,0.04206885,-0.0486318,0.09572508
SC0103EN,-0.12510988,0.00922926,0.025541263,-0.02963017,0.036850296,-0.029940682,-0.233804,0.09790738,-0.15913382,-0.2910789,-0.018807244,0.04348744,0.043162577,-0.038638998,-0.18982786,-0.14491563
LB0111EN,-0.13728349,-0.045892578,0.0010743595,-0.05493973,0.005746764,-0.13018142,-0.13613139,-0.021784656,0.08244568,-0.13164611,-0.22635438,0.0049101147,0.004651131,-0.070108555,0.23675066,0.08851867
DS0132EN,-0.012789352,-0.1225977,0.09804523,0.008896177,0.102718286,0.20880733,-0.14735404,-0.226418,0.077070236,-0.14077963,-0.110127516,0.059634026,-0.035934675,0.10500016,0.028035482,0.00038872482
CB0105ENv1,0.18958794,0.20182367,0.05516858,0.031965002,-0.05845355,0.077930465,-0.031430244,-0.0005962996,0.0021208643,-0.098867156,0.10218253,-0.19120024,-0.051182155,-0.24467586,-0.24790354,-0.06146626
CC0201EN,-0.12431048,-0.23127443,-0.12888497,-0.26326343,-0.2426693,0.20160614,-0.034599874,0.13112864,-0.049531553,-0.0013386728,-0.025404813,0.034617472,-0.103197336,0.059695154,0.11037195,-0.084242076
ML0120ENv2,-0.110904895,0.028903475,-0.020594751,0.17340094,-0.14647256,0.0771549,0.14756237,-0.22938362,0.021444404,0.030098904,0.10081925,0.10349549,0.041842602,-0.2024776,0.22379565,0.06411579
BD0143EN,0.09525205,0.13595031,0.16677839,0.15964699,-0.0120151695,0.09880233,0.058926843,0.236823,0.19374503,0.2613971,-0.07449884,0.09527604,-0.035188094,-0.07194867,0.19448668,0.16601773
LB0105ENv1,0.06095886,0.18519564,-0.015686672,-0.082270846,-0.09836483,-0.008499037,-0.14847414,-0.17185865,0.08609693,0.04312962,0.14480358,0.12113649,0.02547523,0.2467685,-0.03393204,-0.002795445
ML0201EN,0.02808282,-0.07642237,-0.045314018,-0.0813904,0.066777796,-0.07884697,0.084757954,-0.08058265,-0.17627966,-0.10496691,-0.077443056,0.117800266,-0.09082854,-0.0689671,-0.042685248,0.045057178
BD0115EN,-0.14345312,-0.047387652,-0.2529157,0.18367907,0.05567586,0.1509182,-0.10953928,0.07025446,-0.03678569,-0.10171198,0.101212956,-0.019170115,0.122465946,-0.20995696,-0.16320305,0.06761952
BD0221EN,-0.06831322,0.079718485,-0.08991826,-7.765548e-06,0.0859489,0.14332896,0.078395024,-0.015791133,-0.13658181,-0.20561984,-0.21541795,0.10311418,0.18691775,-0.08480072,-0.062751174,0.18873237
ML0120EN,-0.05258865,0.030796036,0.16141357,-0.019889353,-0.13624641,-0.1934642,0.138818,-0.26180598,-0.041512012,-0.04542357,-0.015630314,0.2659552,-0.08301161,-0.09783932,0.17052767,-0.092650265
BD0137EN,0.004332157,-0.25183058,-0.06526284,0.1943431,0.063507564,-0.07587702,-0.086920686,-0.09882367,-0.026644796,0.11443226,-0.02723724,0.09460806,0.06215998,0.03263901,0.20882197,-0.089397006
DAI101EN,0.13989548,-0.12040774,0.098183125,-0.13021688,-0.015006535,-0.089409545,-0.039938953,-0.027165884,0.16140376,0.23541649,-0.002957086,-0.003386991,0.014891977,-0.00778513,-0.12127828,-0.0971746
RP0103EN,0.111672945,-0.11804113,-0.23714814,-0.080232196,0.07466777,-0.11072882,0.26369432,-0.26378903,0.18502003,0.006541649,-0.030988505,0.0839774,0.2782339,-0.023184845,0.11925542,-0.049340658
BD0212EN,0.06507816,-0.02572606,-0.13248599,-0.029770147,-0.054954253,0.092789456,0.18327922,0.020678815,-0.1835165,0.024769094,0.042977028,0.007240997,-0.10502869,-0.24858941,0.24901235,0.010763718
BD0135EN,0.124261715,0.0993097,-0.121424906,-0.14208443,-0.09868976,0.06520515,-0.039734904,0.15219907,-0.04984809,-0.11998339,0.027943779,-0.041346025,0.016930103,-0.14060706,-0.023046805,0.26128975
CC0250EN,0.22784661,-0.1129431,-0.034340277,-0.16720523,0.2427661,-0.06473705,0.071205914,0.20952979,0.012935485,0.05379964,0.087866895,-0.050330043,-0.07518092,0.16321807,0.26538238,0.025470633
TA0105,0.10542312,-0.024518928,-0.051782988,-0.08799977,0.0641123,-0.23187135,-0.14509153,0.054501068,-0.051007222,-0.11308008,-0.26225087,-0.043856487,-0.045199882,0.104638934,0.01581189,0.0097497
DS0321EN,0.12031124,-0.19363384,0.076384276,0.011912761,0.038925435,0.037221678,-0.27005786,-0.1938411,-0.08937628,0.044836156,0.14752609,0.16785543,-0.16148782,-0.017024713,0.09178953,0.12092154
BD0133EN,-0.043805387,0.12573528,-0.0032640481,0.19302255,0.21513987,0.041235927,0.07085295,-0.23881897,0.24809383,0.06580677,0.047430877,0.06887458,-0.050952036,-0.004102464,0.044043276,-0.2072799
LB0107ENv1,0.15802312,-0.03965596,0.14347683,-0.105653524,-0.043251485,-0.16809799,-0.008836989,-0.09547675,-0.09185787,-0.16286935,-0.100622684,0.05414049,-0.11214558,-0.14997014,-0.15494356,0.06647559
ML0122ENv3,-0.2544183,-0.026419446,-0.049926285,-0.0041931802,-0.16384593,-0.021736268,0.21248078,-0.09262033,0.09538642,0.12609854,0.0018837131,-0.21376339,-0.13321334,-0.1740484,0.011764561,0.15377438
SECM03EN,0.088410296,-0.0546044,-0.16752282,-0.1169593,-0.04511992,0.21216045,-0.121347055,0.21711567,0.15678746,-0.20667048,0.026342634,0.008198905,0.032631025,-0.040856656,0.0650483,-0.024004191
TMP0105EN,0.070156276,0.07591826,-0.038703132,-0.1022821,-0.14952916,0.03126465,-0.09707454,-0.03200708,-0.058625232,-0.18616466,0.058013372,-0.18474607,0.24378137,-0.09679963,-0.078572184,0.16669047
BD0151EN,0.23614255,-0.019466378,0.04218252,-0.18895626,0.25620908,0.10005044,-0.08099405,0.09638361,-0.007253931,0.17346926,-0.014384497,-0.043317277,0.13540916,-0.009868531,-0.071265064,-0.008637288
PA0109EN,0.04342645,-0.0104291225,-0.072650164,-0.08324593,0.0569743,-0.022401363,0.041059047,0.0765179,-0.08532706,-0.074193306,0.09286294,0.090226404,0.049710575,-0.11646009,-0.11872584,0.064502075
DJ0101EN,-0.2188629,0.07113397,0.16811965,-0.110048965,0.14775838,-0.05610842,0.04027541,0.022690278,-0.07889904,0.03709581,0.27871445,0.07461704,-0.23285465,-0.023558207,-0.07192626,-0.07800265
CP0101EN,-0.16614139,0.21800321,-0.14453073,-0.27903315,0.24797194,0.117182225,-0.052778993,-0.0607659,-0.12877606,-0.07916913,-0.0053833295,0.0131052425,-0.027509369,-0.104477346,0.2063181,0.045098685
CB0101EN,0.119338706,-0.18270405,0.011605092,-0.027212266,0.07168574,-0.22396182,0.097489096,-0.027042985,-0.010248556,0.10447367,-0.07132678,0.20998071,0.042224217,-0.017249303,-0.11320386,-0.07898766
EE0101EN,-0.0009747761,0.28639162,0.060999356,0.03967601,0.048328992,-0.22353682,-0.12907884,-0.12004898,0.15829118,-0.14076972,0.016303355,-0.101716205,-0.16940008,-0.12439569,0.11959897,0.07570972
CC0210EN,-0.15961976,-0.14140628,-0.108653314,0.026418189,0.040051848,-0.095606565,-0.1806932,-0.051958106,0.15982676,0.22580872,-0.028029077,-0.15398413,-0.030843442,-0.06880501,0.032994952,0.24727547
AI0111EN,-0.07297735,0.11125223,-0.040520623,0.079622045,0.17295218,-0.24891363,0.20416573,0.106436856,-0.1317893,0.0795454,-0.11329722,0.17353125,0.11946769,-0.112788595,-0.08689492,-0.24889266
DW0101EN,0.0027358474,0.05187262,-0.10204107,-0.13717073,0.08567067,0.06286543,0.085310355,-0.06482837,0.2212347,-0.107290074,-0.06772148,0.009165017,0.06492164,0.27943313,0.080367595,-0.16866402
HCC105EN,-0.20534642,0.15801668,0.044046532,-0.1882117,0.05141335,-0.049587935,0.11030288,0.010649143,0.22250219,-0.030460982,0.13561772,0.07554781,0.052175518,-0.02499841,0.15399463,-0.2127327
LB0103ENv1,-0.026151674,-0.024569457,-0.1620206,-0.008969439,-0.25499898,0.11329328,-0.1432954,-0.054034375,-0.09571127,0.026777647,0.0034181445,0.23923813,-0.1450923,-0.12419758,-0.2427758,-0.025567567
SW0101EN,0.043349672,-0.036952067,0.027051408,-0.2174619,-0.24210064,-0.03182706,0.009817362,0.1749075,0.16136247,-0.16847731,0.019991357,-0.002330931,0.09270326,-0.08579474,-0.21282198,0.2292651
DS0201EN,-0.029502785,-0.13819781,-0.002608102,0.07945068,0.09957351,0.073675826,-0.039838687,-0.09047508,0.2933022,-0.022868767,-0.16029127,-0.15762053,0.044277858,0.18646924,-0.07503756,0.047402836
HCC104EN,-0.13676189,0.1626762,0.01991713,0.08709926,0.03537318,-0.06897988,0.21240762,0.1726511,0.02806988,-0.034003664,-0.2691847,0.045694288,-0.19446574,-0.20793267,-0.10049271,0.01874452
SW0201EN,-0.12501644,0.19330646,0.212964,0.07683741,0.2038185,-0.11577325,-0.063381515,-0.07600526,-0.015314329,0.14789008,-0.0838812,-0.058539618,0.056514867,0.02903541,-0.047648888,0.11657234
TA0106EN,0.22191335,-0.10791499,-0.0034084783,-0.19861794,-0.0919381,-0.16665293,0.21903889,0.046360657,-0.108156756,0.035416607,0.018965669,-0.12501068,-0.04430623,0.1734192,0.12733892,0.16044535
DE0205EN,0.104618326,0.046074346,-0.16275895,-0.10875351,0.12544218,-0.019304203,0.054877542,0.032490566,-0.21220341,-0.041537326,-0.14347391,-0.036554236,0.1269432,-0.22839181,-0.10650192,-0.004031038
IT0101EN,-0.18372001,-0.14878571,-0.19163454,-0.0018345758,0.18215963,-0.10416489,-0.09653405,0.0047277207,-0.031727616,0.1709129,-0.06615816,0.03704667,0.095068805,-0.06826435,0.10948974,-0.14213951
OS0101EN,-0.07188372,0.021121651,0.05808954,-0.22390375,-0.098525204,-0.04817916,0.12107927,-0.091511734,0.112747215,-0.1627515,-0.060558036,0.016701927,-0.11493398,0.2017009,-0.0727526,-0.01808166
BD0153EN,-0.008902042,-0.070695795,0.1564785,0.07145932,-0.12426713,0.12277793,0.10559624,-0.17948902,-0.20286575,0.12518665,-0.062524974,-0.11262828,0.092278816,0.08561306,0.025930047,-0.108358696
WA0103EN,-0.13903552,-0.036094494,0.08446743,-0.040148944,0.029662909,-0.23316164,-0.2562176,0.047491413,0.011629729,-0.17024373,0.1336417,0.0944573,0.14387326,-0.18668094,0.035026416,-0.20616972
DP0101EN,-0.18765432,-0.075922154,-0.015674517,0.013753799,-0.18056977,-0.11234735,-0.11695137,-0.22805423,-0.0050982893,0.00974215,-0.031967014,-0.18563007,0.2417276,-0.17777306,-0.106750466,-0.04312196
TMP0106,0.035075538,-0.1415832,-0.015483585,0.014633557,0.07813726,-0.019578194,0.09418344,-0.16360241,0.012082021,-0.0794477,0.11170255,-0.11088455,-0.04510359,-0.21777035,0.06483196,-0.12648693
CB0201EN,-0.034268558,0.13121761,0.07149949,0.017121179,-0.12969324,-0.02824443,-0.023314072,-0.023933914,-0.058308087,0.019941872,0.027786873,0.019048119,-0.17587402,0.06280102,0.07795921,-0.03335951
GPXX0T0FEN,0.12206922,-0.039301336,0.06732959,-0.005449282,0.008556313,0.045735974,0.04912571,-0.086338654,0.14386664,-0.14648832,0.045799855,0.044381883,-0.06155178,-0.06681719,-0.13875775,0.0024174766
DB0111EN,-0.009888375,-0.06602379,-0.1363228,0.07923836,0.004866519,-0.032171104,-0.040244102,-0.038714267,-0.12424695,0.018524284,0.068080835,-0.06217153,0.00061181677,0.015069749,0.0010224247,-0.031642027
PHPM002EN,-0.13665983,0.04597967,0.049446054,-0.17760986,0.07204663,0.09919219,-0.2899402,-0.033027116,0.021988045,-0.028731005,0.08735958,-0.046792995,-0.2015239,0.045517746,0.11358996,0.00057841046
TMP107,-0.0006359377,-0.071332596,-0.033208918,0.027476639,0.023717746,0.052651078,-0.054943938,-0.030987743,-0.074916646,0.006764078,0.0013374173,-0.0060523576,-0.099280946,0.015578587,-0.016690465,0.0014400884
DA0201EN,0.056880996,-0.045264617,0.014485737,0.060000252,-0.09375237,-0.002514451,0.0020094533,0.12437548,-0.005313384,-0.009214792,0.0014015994,-0.04803117,-0.07552952,-0.05331653,-0.023638012,0.02862115
ST0201EN,0.033691484,-0.06681366,0.07098892,-0.026388317,-0.010508247,-0.011902923,0.012810999,-0.094130024,0.015064269,-0.1299327,-0.03381376,0.008067063,0.016847827,-0.05591219,0.055849805,0.013231625
DX0106EN,0.021851968,0.026281288,0.018656882,0.028838255,0.019641133,0.09687219,0.01471558,0.040808372,-0.025666984,-0.010428913,0.05649487,-0.0668772,0.044197474,0.002691009,-0.072850615,-0.114867255
CC0271EN,0.08977646,0.12790915,-0.05014708,0.011106653,-0.109316915,-0.10739149,-0.038969707,0.11561307,0.021139,-0.081728846,0.13392252,0.026303913,-0.1015224,0.21443443,0.17323121,-0.09152667
DX0107EN,-0.025699226,-0.05046073,0.070044376,0.0079212515,-0.1089454,0.039381072,0.15234797,0.027744602,0.007294537,-0.05833409,-0.018393058,-0.048351213,0.14045064,-0.0054762764,0.040628035,-0.03341613
BENTEST4,-0.074146315,-0.09124045,-0.034340765,-0.03283436,0.003895533,0.015644439,0.0292781,0.04016363,-0.034534864,0.047793824,-0.050225083,0.033410884,-0.035480674,0.046780184,0.052296363,0.002839233
PA0107EN,-0.028063744,0.04760837,-0.11082678,-0.092488885,-0.056224138,0.09175644,-0.00588592,0.018951148,0.19340931,0.14946407,0.17931889,-0.04954966,0.16203807,-0.02186344,0.21931666,-0.2108767
PA0103EN,-0.07461188,0.08335207,-0.0139804315,-0.08133896,-0.16145588,-0.088058025,0.0048070825,0.019352943,0.023275767,0.051186085,0.02842853,0.08653004,-0.05171775,0.11266682,-0.027800495,0.021380484
DA0151EN,-0.0019766768,-0.016030742,-0.020542178,-0.062299218,0.081302375,0.016034989,0.001166011,0.019318921,-0.042438287,-0.12609324,0.005517966,-0.03924999,0.04456844,-0.09315549,0.098718755,0.00051461277
ST0301EN,-0.00816045,-0.0012791668,-0.018104423,0.037912723,-0.041934118,0.021028118,0.003716711,0.026300423,-0.061674956,0.02232349,-0.00992183,0.027776645,0.0072151795,0.045941066,-0.062036183,0.005496858
TMP0101EN,0.06719785,-0.053735662,-0.003599215,0.010079782,-0.022110496,-0.06023951,-0.0010885305,0.0115169175,0.02562141,-0.086883776,-0.0034134362,-0.04207967,-0.013457224,-0.03423355,0.02591413,0.025180038
DB0113EN,0.06703,-0.09096803,0.086599804,0.19433212,-0.15129496,-0.09192025,-0.059017293,0.07160747,0.08029782,0.010514966,0.047587693,-0.029543508,0.1011271,0.042247593,-0.069452085,0.0034422888
DX0108EN,-0.009104213,0.024433209,0.0049429457,0.03333772,0.025467956,-0.027834857,0.0010720612,0.025998913,-0.00657067,0.06078089,0.04794889,-0.034965478,0.023331093,0.049663574,0.019265652,-0.08066142
DS0107,0.15218711,-0.12898704,-0.00020048693,-0.21590607,-0.18903421,-0.032168765,0.0053654993,-0.16508745,0.00029990743,-0.11951023,-0.0013054863,-0.15536453,0.048891205,0.04760524,-0.1616224,-0.0027536238
DB0115EN,-0.054673485,0.14407352,-0.16212079,0.09768764,0.108718395,-0.15438783,-0.067612864,-0.15882927,0.07047586,0.08261355,0.08360139,-0.0520202,-0.036138188,-0.0023754488,0.13209218,0.07277477
GPXX0QR3EN,-0.02869801,-0.06595295,0.008132458,-0.020294983,0.026548492,0.020217987,-0.094979085,-0.09667656,-0.02451845,0.003040345,-0.003642145,0.029639604,0.0003135924,0.0074370736,-0.0037834859,0.11266215
